digraph Tree {
node [shape=box, style="filled, rounded", color="black", fontname=helvetica] ;
edge [fontname=helvetica] ;
0 [label="petal width (cm) <= 1.75\ngini = 0.65\nsamples = 94\nvalue = [36, 56, 58]\nclass = virginica", fillcolor="#fcfbfe"] ;
1 [label="petal width (cm) <= 0.75\ngini = 0.55\nsamples = 63\nvalue = [36, 56, 8]\nclass = versicolor", fillcolor="#c1f7d8"] ;
0 -> 1 [labeldistance=2.5, labelangle=45, headlabel="True"] ;
2 [label="gini = 0.0\nsamples = 25\nvalue = [36, 0, 0]\nclass = setosa", fillcolor="#e58139"] ;
1 -> 2 ;
3 [label="petal length (cm) <= 5.35\ngini = 0.22\nsamples = 38\nvalue = [0, 56, 8]\nclass = versicolor", fillcolor="#55e993"] ;
1 -> 3 ;
4 [label="petal width (cm) <= 1.65\ngini = 0.12\nsamples = 36\nvalue = [0, 56, 4]\nclass = versicolor", fillcolor="#47e78a"] ;
3 -> 4 ;
5 [label="petal length (cm) <= 4.95\ngini = 0.07\nsamples = 34\nvalue = [0, 54, 2]\nclass = versicolor", fillcolor="#40e686"] ;
4 -> 5 ;
6 [label="gini = 0.0\nsamples = 32\nvalue = [0, 52, 0]\nclass = versicolor", fillcolor="#39e581"] ;
5 -> 6 ;
7 [label="petal width (cm) <= 1.55\ngini = 0.5\nsamples = 2\nvalue = [0, 2, 2]\nclass = versicolor", fillcolor="#ffffff"] ;
5 -> 7 ;
8 [label="gini = 0.0\nsamples = 1\nvalue = [0, 0, 2]\nclass = virginica", fillcolor="#8139e5"] ;
7 -> 8 ;
9 [label="gini = 0.0\nsamples = 1\nvalue = [0, 2, 0]\nclass = versicolor", fillcolor="#39e581"] ;
7 -> 9 ;
10 [label="petal length (cm) <= 4.75\ngini = 0.5\nsamples = 2\nvalue = [0, 2, 2]\nclass = versicolor", fillcolor="#ffffff"] ;
4 -> 10 ;
11 [label="gini = 0.0\nsamples = 1\nvalue = [0, 0, 2]\nclass = virginica", fillcolor="#8139e5"] ;
10 -> 11 ;
12 [label="gini = 0.0\nsamples = 1\nvalue = [0, 2, 0]\nclass = versicolor", fillcolor="#39e581"] ;
10 -> 12 ;
13 [label="gini = 0.0\nsamples = 2\nvalue = [0, 0, 4]\nclass = virginica", fillcolor="#8139e5"] ;
3 -> 13 ;
14 [label="gini = 0.0\nsamples = 31\nvalue = [0, 0, 50]\nclass = virginica", fillcolor="#8139e5"] ;
0 -> 14 [labeldistance=2.5, labelangle=-45, headlabel="False"] ;
}